<?xml version="1.0"?>
<opencv_storage>
<cascade>
  <stageType>BOOST</stageType>
  <featureType>HAAR</featureType>
  <height>30</height>
  <width>24</width>
  <stageParams>
    <boostType>GAB</boostType>
    <minHitRate>9.9500000476837158e-01</minHitRate>
    <maxFalseAlarm>5.0000000000000000e-01</maxFalseAlarm>
    <weightTrimRate>9.4999998807907104e-01</weightTrimRate>
    <maxDepth>1</maxDepth>
    <maxWeakCount>100</maxWeakCount></stageParams>
  <featureParams>
    <maxCatCount>0</maxCatCount>
    <featSize>1</featSize>
    <mode>BASIC</mode></featureParams>
  <stageNum>9</stageNum>
  <stages>
    <!-- stage 0 -->
    <_>
      <maxWeakCount>4</maxWeakCount>
      <stageThreshold>-1.4383505582809448e+00</stageThreshold>
      <weakClassifiers>
        <_>
          <internalNodes>
            0 -1 14 -9.7541451454162598e-02</internalNodes>
          <leafValues>
            1.0091742873191833e-01 -9.1927343606948853e-01</leafValues></_>
        <_>
          <internalNodes>
            0 -1 19 -4.0911338292062283e-03</internalNodes>
          <leafValues>
            4.8808246850967407e-01 -7.3817658424377441e-01</leafValues></_>
        <_>
          <internalNodes>
            0 -1 12 -1.3215636834502220e-02</internalNodes>
          <leafValues>
            7.6560682058334351e-01 -4.6674898266792297e-01</leafValues></_>
        <_>
          <internalNodes>
            0 -1 30 8.8233035057783127e-03</internalNodes>
          <leafValues>
            -3.3434242010116577e-01 7.6261222362518311e-01</leafValues></_></weakClassifiers></_>
    <!-- stage 1 -->
    <_>
      <maxWeakCount>6</maxWeakCount>
      <stageThreshold>-1.4615628719329834e+00</stageThreshold>
      <weakClassifiers>
        <_>
          <internalNodes>
            0 -1 29 3.1244013458490372e-02</internalNodes>
          <leafValues>
            -8.5928708314895630e-01 4.7058823704719543e-01</leafValues></_>
        <_>
          <internalNodes>
            0 -1 13 -1.3011002540588379e-01</internalNodes>
          <leafValues>
            1.5316335856914520e-01 -6.8718826770782471e-01</leafValues></_>
        <_>
          <internalNodes>
            0 -1 37 -2.0861288532614708e-02</internalNodes>
          <leafValues>
            4.7739577293395996e-01 -4.0149393677711487e-01</leafValues></_>
        <_>
          <internalNodes>
            0 -1 44 2.4766519665718079e-02</internalNodes>
          <leafValues>
            -3.2556232810020447e-01 6.6349524259567261e-01</leafValues></_>
        <_>
          <internalNodes>
            0 -1 8 7.3446347378194332e-03</internalNodes>
          <leafValues>
            2.4756968021392822e-01 -9.0940302610397339e-01</leafValues></_>
        <_>
          <internalNodes>
            0 -1 31 -4.4778911396861076e-03</internalNodes>
          <leafValues>
            7.0940119028091431e-01 -2.7595257759094238e-01</leafValues></_></weakClassifiers></_>
    <!-- stage 2 -->
    <_>
      <maxWeakCount>6</maxWeakCount>
      <stageThreshold>-1.6890063285827637e+00</stageThreshold>
      <weakClassifiers>
        <_>
          <internalNodes>
            0 -1 33 3.4891277551651001e-02</internalNodes>
          <leafValues>
            -8.4916198253631592e-01 4.6153846383094788e-01</leafValues></_>
        <_>
          <internalNodes>
            0 -1 26 -1.0786706209182739e-01</internalNodes>
          <leafValues>
            3.2258936762809753e-01 -5.9972530603408813e-01</leafValues></_>
        <_>
          <internalNodes>
            0 -1 39 8.3913130220025778e-04</internalNodes>
          <leafValues>
            2.0689597725868225e-01 -8.2184898853302002e-01</leafValues></_>
        <_>
          <internalNodes>
            0 -1 40 -4.6484294580295682e-04</internalNodes>
          <leafValues>
            -9.3012034893035889e-01 1.7643630504608154e-01</leafValues></_>
        <_>
          <internalNodes>
            0 -1 4 -9.0797049924731255e-03</internalNodes>
          <leafValues>
            3.1220453977584839e-01 -6.0017853975296021e-01</leafValues></_>
        <_>
          <internalNodes>
            0 -1 28 3.9978360291570425e-04</internalNodes>
          <leafValues>
            2.0126581192016602e-01 -9.3565583229064941e-01</leafValues></_></weakClassifiers></_>
    <!-- stage 3 -->
    <_>
      <maxWeakCount>6</maxWeakCount>
      <stageThreshold>-1.9636867046356201e+00</stageThreshold>
      <weakClassifiers>
        <_>
          <internalNodes>
            0 -1 2 -1.9217573106288910e-02</internalNodes>
          <leafValues>
            -4.2253520339727402e-02 -8.7172013521194458e-01</leafValues></_>
        <_>
          <internalNodes>
            0 -1 28 -4.2484025470912457e-04</internalNodes>
          <leafValues>
            -9.1666978597640991e-01 -4.7591913491487503e-02</leafValues></_>
        <_>
          <internalNodes>
            0 -1 17 -3.8284726906567812e-04</internalNodes>
          <leafValues>
            -9.8024260997772217e-01 1.0050837695598602e-01</leafValues></_>
        <_>
          <internalNodes>
            0 -1 16 1.8209009431302547e-04</internalNodes>
          <leafValues>
            2.1518187224864960e-01 -7.8910088539123535e-01</leafValues></_>
        <_>
          <internalNodes>
            0 -1 1 -3.2971102744340897e-02</internalNodes>
          <leafValues>
            7.0197725296020508e-01 -2.9836490750312805e-01</leafValues></_>
        <_>
          <internalNodes>
            0 -1 35 -2.7802394470199943e-04</internalNodes>
          <leafValues>
            -9.8445677757263184e-01 1.9386708736419678e-01</leafValues></_></weakClassifiers></_>
    <!-- stage 4 -->
    <_>
      <maxWeakCount>7</maxWeakCount>
      <stageThreshold>-2.0329961776733398e+00</stageThreshold>
      <weakClassifiers>
        <_>
          <internalNodes>
            0 -1 48 2.8305914252996445e-02</internalNodes>
          <leafValues>
            -8.6368060111999512e-01 -1.7808219790458679e-01</leafValues></_>
        <_>
          <internalNodes>
            0 -1 43 2.2169556468725204e-02</internalNodes>
          <leafValues>
            -6.1931812763214111e-01 9.6739411354064941e-02</leafValues></_>
        <_>
          <internalNodes>
            0 -1 9 3.5948347067460418e-04</internalNodes>
          <leafValues>
            1.1319524049758911e-01 -9.3023771047592163e-01</leafValues></_>
        <_>
          <internalNodes>
            0 -1 9 -1.0011320409830660e-04</internalNodes>
          <leafValues>
            -6.5713202953338623e-01 3.1412282586097717e-01</leafValues></_>
        <_>
          <internalNodes>
            0 -1 3 -1.2354670092463493e-02</internalNodes>
          <leafValues>
            5.0664937496185303e-01 -3.4230282902717590e-01</leafValues></_>
        <_>
          <internalNodes>
            0 -1 25 -5.5047529749572277e-03</internalNodes>
          <leafValues>
            3.5491445660591125e-01 -4.0140664577484131e-01</leafValues></_>
        <_>
          <internalNodes>
            0 -1 15 6.3317932188510895e-02</internalNodes>
          <leafValues>
            -2.3360590636730194e-01 6.6188508272171021e-01</leafValues></_></weakClassifiers></_>
    <!-- stage 5 -->
    <_>
      <maxWeakCount>6</maxWeakCount>
      <stageThreshold>-2.1146068572998047e+00</stageThreshold>
      <weakClassifiers>
        <_>
          <internalNodes>
            0 -1 11 7.1100350469350815e-03</internalNodes>
          <leafValues>
            -9.4206547737121582e-01 -4.9673202633857727e-01</leafValues></_>
        <_>
          <internalNodes>
            0 -1 36 -4.0323510766029358e-03</internalNodes>
          <leafValues>
            1.3633447885513306e-01 -6.5203338861465454e-01</leafValues></_>
        <_>
          <internalNodes>
            0 -1 5 -4.8255971632897854e-03</internalNodes>
          <leafValues>
            3.6463373899459839e-01 -4.8791778087615967e-01</leafValues></_>
        <_>
          <internalNodes>
            0 -1 24 1.6977457562461495e-03</internalNodes>
          <leafValues>
            -3.2337301969528198e-01 5.6488269567489624e-01</leafValues></_>
        <_>
          <internalNodes>
            0 -1 7 -3.0038140714168549e-02</internalNodes>
          <leafValues>
            4.6579650044441223e-01 -3.2151404023170471e-01</leafValues></_>
        <_>
          <internalNodes>
            0 -1 27 3.3116680569946766e-03</internalNodes>
          <leafValues>
            -2.7595880627632141e-01 6.2118160724639893e-01</leafValues></_></weakClassifiers></_>
    <!-- stage 6 -->
    <_>
      <maxWeakCount>4</maxWeakCount>
      <stageThreshold>-1.3942545652389526e+00</stageThreshold>
      <weakClassifiers>
        <_>
          <internalNodes>
            0 -1 18 -9.4160601496696472e-02</internalNodes>
          <leafValues>
            1.8518517911434174e-01 -8.4342962503433228e-01</leafValues></_>
        <_>
          <internalNodes>
            0 -1 10 -8.7600797414779663e-02</internalNodes>
          <leafValues>
            -3.5461599472910166e-03 -7.3392456769943237e-01</leafValues></_>
        <_>
          <internalNodes>
            0 -1 45 2.0966351439710706e-04</internalNodes>
          <leafValues>
            1.7868492007255554e-01 -7.0624119043350220e-01</leafValues></_>
        <_>
          <internalNodes>
            0 -1 23 7.9765479313209653e-04</internalNodes>
          <leafValues>
            2.1145214140415192e-01 -7.2596365213394165e-01</leafValues></_></weakClassifiers></_>
    <!-- stage 7 -->
    <_>
      <maxWeakCount>7</maxWeakCount>
      <stageThreshold>-1.6953452825546265e+00</stageThreshold>
      <weakClassifiers>
        <_>
          <internalNodes>
            0 -1 22 -6.2758442945778370e-03</internalNodes>
          <leafValues>
            -2.7027025818824768e-01 -8.5769981145858765e-01</leafValues></_>
        <_>
          <internalNodes>
            0 -1 32 2.8354888781905174e-03</internalNodes>
          <leafValues>
            -1.6482464969158173e-01 -9.1279381513595581e-01</leafValues></_>
        <_>
          <internalNodes>
            0 -1 6 -1.1122324503958225e-03</internalNodes>
          <leafValues>
            4.4765642285346985e-01 -3.0618855357170105e-01</leafValues></_>
        <_>
          <internalNodes>
            0 -1 42 4.5993337407708168e-03</internalNodes>
          <leafValues>
            1.2675753235816956e-01 -1.</leafValues></_>
        <_>
          <internalNodes>
            0 -1 41 1.1727211531251669e-03</internalNodes>
          <leafValues>
            -2.0733995735645294e-01 6.5391296148300171e-01</leafValues></_>
        <_>
          <internalNodes>
            0 -1 46 -9.5324190333485603e-03</internalNodes>
          <leafValues>
            4.3244719505310059e-01 -3.2216241955757141e-01</leafValues></_>
        <_>
          <internalNodes>
            0 -1 49 -7.6949233189225197e-03</internalNodes>
          <leafValues>
            -7.5947076082229614e-01 1.9665217399597168e-01</leafValues></_></weakClassifiers></_>
    <!-- stage 8 -->
    <_>
      <maxWeakCount>8</maxWeakCount>
      <stageThreshold>-1.7360966205596924e+00</stageThreshold>
      <weakClassifiers>
        <_>
          <internalNodes>
            0 -1 34 -4.8367746174335480e-02</internalNodes>
          <leafValues>
            6.2500000000000000e-02 -8.4456926584243774e-01</leafValues></_>
        <_>
          <internalNodes>
            0 -1 0 -5.7104001753032207e-03</internalNodes>
          <leafValues>
            9.8271239548921585e-03 -6.5974956750869751e-01</leafValues></_>
        <_>
          <internalNodes>
            0 -1 21 -4.1162897832691669e-04</internalNodes>
          <leafValues>
            -7.3842060565948486e-01 1.7660790681838989e-01</leafValues></_>
        <_>
          <internalNodes>
            0 -1 21 3.3249799162149429e-04</internalNodes>
          <leafValues>
            2.5082617998123169e-01 -7.0062971115112305e-01</leafValues></_>
        <_>
          <internalNodes>
            0 -1 38 -2.2893309593200684e-02</internalNodes>
          <leafValues>
            4.4615244865417480e-01 -3.5222953557968140e-01</leafValues></_>
        <_>
          <internalNodes>
            0 -1 20 -6.1117450240999460e-04</internalNodes>
          <leafValues>
            -6.3466453552246094e-01 2.5232887268066406e-01</leafValues></_>
        <_>
          <internalNodes>
            0 -1 50 3.8673944072797894e-04</internalNodes>
          <leafValues>
            1.5376962721347809e-01 -8.1160855293273926e-01</leafValues></_>
        <_>
          <internalNodes>
            0 -1 47 1.8073702813126147e-04</internalNodes>
          <leafValues>
            -4.1352865099906921e-01 2.9055911302566528e-01</leafValues></_></weakClassifiers></_></stages>
  <features>
    <_>
      <rects>
        <_>
          0 7 16 6 -1.</_>
        <_>
          0 9 16 2 3.</_></rects>
      <tilted>0</tilted></_>
    <_>
      <rects>
        <_>
          0 12 8 12 -1.</_>
        <_>
          0 12 4 6 2.</_>
        <_>
          4 18 4 6 2.</_></rects>
      <tilted>0</tilted></_>
    <_>
      <rects>
        <_>
          0 13 4 11 -1.</_>
        <_>
          2 13 2 11 2.</_></rects>
      <tilted>0</tilted></_>
    <_>
      <rects>
        <_>
          0 14 4 10 -1.</_>
        <_>
          2 14 2 10 2.</_></rects>
      <tilted>0</tilted></_>
    <_>
      <rects>
        <_>
          0 14 12 10 -1.</_>
        <_>
          0 14 6 5 2.</_>
        <_>
          6 19 6 5 2.</_></rects>
      <tilted>0</tilted></_>
    <_>
      <rects>
        <_>
          0 22 10 2 -1.</_>
        <_>
          5 22 5 2 2.</_></rects>
      <tilted>0</tilted></_>
    <_>
      <rects>
        <_>
          1 14 3 2 -1.</_>
        <_>
          2 14 1 2 3.</_></rects>
      <tilted>0</tilted></_>
    <_>
      <rects>
        <_>
          1 21 19 9 -1.</_>
        <_>
          1 24 19 3 3.</_></rects>
      <tilted>0</tilted></_>
    <_>
      <rects>
        <_>
          1 28 18 2 -1.</_>
        <_>
          7 28 6 2 3.</_></rects>
      <tilted>0</tilted></_>
    <_>
      <rects>
        <_>
          1 29 3 1 -1.</_>
        <_>
          2 29 1 1 3.</_></rects>
      <tilted>0</tilted></_>
    <_>
      <rects>
        <_>
          3 9 15 16 -1.</_>
        <_>
          3 17 15 8 2.</_></rects>
      <tilted>0</tilted></_>
    <_>
      <rects>
        <_>
          3 22 7 8 -1.</_>
        <_>
          3 26 7 4 2.</_></rects>
      <tilted>0</tilted></_>
    <_>
      <rects>
        <_>
          4 12 15 6 -1.</_>
        <_>
          4 14 15 2 3.</_></rects>
      <tilted>0</tilted></_>
    <_>
      <rects>
        <_>
          4 12 20 18 -1.</_>
        <_>
          4 18 20 6 3.</_></rects>
      <tilted>0</tilted></_>
    <_>
      <rects>
        <_>
          4 15 15 15 -1.</_>
        <_>
          4 20 15 5 3.</_></rects>
      <tilted>0</tilted></_>
    <_>
      <rects>
        <_>
          5 7 17 9 -1.</_>
        <_>
          5 10 17 3 3.</_></rects>
      <tilted>0</tilted></_>
    <_>
      <rects>
        <_>
          5 27 2 1 -1.</_>
        <_>
          6 27 1 1 2.</_></rects>
      <tilted>0</tilted></_>
    <_>
      <rects>
        <_>
          5 27 3 1 -1.</_>
        <_>
          6 27 1 1 3.</_></rects>
      <tilted>0</tilted></_>
    <_>
      <rects>
        <_>
          6 5 15 8 -1.</_>
        <_>
          6 9 15 4 2.</_></rects>
      <tilted>0</tilted></_>
    <_>
      <rects>
        <_>
          6 15 13 2 -1.</_>
        <_>
          6 16 13 1 2.</_></rects>
      <tilted>0</tilted></_>
    <_>
      <rects>
        <_>
          6 24 3 4 -1.</_>
        <_>
          7 24 1 4 3.</_></rects>
      <tilted>0</tilted></_>
    <_>
      <rects>
        <_>
          6 26 3 2 -1.</_>
        <_>
          7 26 1 2 3.</_></rects>
      <tilted>0</tilted></_>
    <_>
      <rects>
        <_>
          7 8 6 3 -1.</_>
        <_>
          7 9 6 1 3.</_></rects>
      <tilted>0</tilted></_>
    <_>
      <rects>
        <_>
          8 1 8 2 -1.</_>
        <_>
          8 2 8 1 2.</_></rects>
      <tilted>0</tilted></_>
    <_>
      <rects>
        <_>
          8 17 4 4 -1.</_>
        <_>
          8 17 2 2 2.</_>
        <_>
          10 19 2 2 2.</_></rects>
      <tilted>0</tilted></_>
    <_>
      <rects>
        <_>
          8 17 2 12 -1.</_>
        <_>
          8 21 2 4 3.</_></rects>
      <tilted>0</tilted></_>
    <_>
      <rects>
        <_>
          9 0 13 16 -1.</_>
        <_>
          9 8 13 8 2.</_></rects>
      <tilted>0</tilted></_>
    <_>
      <rects>
        <_>
          9 22 4 6 -1.</_>
        <_>
          9 24 4 2 3.</_></rects>
      <tilted>0</tilted></_>
    <_>
      <rects>
        <_>
          9 29 3 1 -1.</_>
        <_>
          10 29 1 1 3.</_></rects>
      <tilted>0</tilted></_>
    <_>
      <rects>
        <_>
          10 9 3 9 -1.</_>
        <_>
          10 12 3 3 3.</_></rects>
      <tilted>0</tilted></_>
    <_>
      <rects>
        <_>
          10 11 5 6 -1.</_>
        <_>
          10 13 5 2 3.</_></rects>
      <tilted>0</tilted></_>
    <_>
      <rects>
        <_>
          10 21 1 9 -1.</_>
        <_>
          10 24 1 3 3.</_></rects>
      <tilted>0</tilted></_>
    <_>
      <rects>
        <_>
          10 29 12 1 -1.</_>
        <_>
          14 29 4 1 3.</_></rects>
      <tilted>0</tilted></_>
    <_>
      <rects>
        <_>
          11 7 2 12 -1.</_>
        <_>
          11 11 2 4 3.</_></rects>
      <tilted>0</tilted></_>
    <_>
      <rects>
        <_>
          11 18 3 12 -1.</_>
        <_>
          11 22 3 4 3.</_></rects>
      <tilted>0</tilted></_>
    <_>
      <rects>
        <_>
          11 29 2 1 -1.</_>
        <_>
          12 29 1 1 2.</_></rects>
      <tilted>0</tilted></_>
    <_>
      <rects>
        <_>
          12 1 1 10 -1.</_>
        <_>
          12 6 1 5 2.</_></rects>
      <tilted>0</tilted></_>
    <_>
      <rects>
        <_>
          12 14 12 8 -1.</_>
        <_>
          16 14 4 8 3.</_></rects>
      <tilted>0</tilted></_>
    <_>
      <rects>
        <_>
          12 16 12 5 -1.</_>
        <_>
          16 16 4 5 3.</_></rects>
      <tilted>0</tilted></_>
    <_>
      <rects>
        <_>
          12 28 6 2 -1.</_>
        <_>
          14 28 2 2 3.</_></rects>
      <tilted>0</tilted></_>
    <_>
      <rects>
        <_>
          13 29 3 1 -1.</_>
        <_>
          14 29 1 1 3.</_></rects>
      <tilted>0</tilted></_>
    <_>
      <rects>
        <_>
          14 11 1 3 -1.</_>
        <_>
          14 12 1 1 3.</_></rects>
      <tilted>0</tilted></_>
    <_>
      <rects>
        <_>
          14 27 6 3 -1.</_>
        <_>
          16 27 2 3 3.</_></rects>
      <tilted>0</tilted></_>
    <_>
      <rects>
        <_>
          16 11 8 16 -1.</_>
        <_>
          16 11 4 8 2.</_>
        <_>
          20 19 4 8 2.</_></rects>
      <tilted>0</tilted></_>
    <_>
      <rects>
        <_>
          16 15 8 12 -1.</_>
        <_>
          16 15 4 6 2.</_>
        <_>
          20 21 4 6 2.</_></rects>
      <tilted>0</tilted></_>
    <_>
      <rects>
        <_>
          16 29 4 1 -1.</_>
        <_>
          18 29 2 1 2.</_></rects>
      <tilted>0</tilted></_>
    <_>
      <rects>
        <_>
          17 8 6 20 -1.</_>
        <_>
          19 8 2 20 3.</_></rects>
      <tilted>0</tilted></_>
    <_>
      <rects>
        <_>
          17 16 3 12 -1.</_>
        <_>
          18 16 1 12 3.</_></rects>
      <tilted>0</tilted></_>
    <_>
      <rects>
        <_>
          20 11 4 15 -1.</_>
        <_>
          22 11 2 15 2.</_></rects>
      <tilted>0</tilted></_>
    <_>
      <rects>
        <_>
          22 17 2 12 -1.</_>
        <_>
          22 21 2 4 3.</_></rects>
      <tilted>0</tilted></_>
    <_>
      <rects>
        <_>
          23 22 1 2 -1.</_>
        <_>
          23 23 1 1 2.</_></rects>
      <tilted>0</tilted></_></features></cascade>
</opencv_storage>
